digraph Tree {
node [shape=box, style="filled, rounded", color="black", fontname=helvetica] ;
edge [fontname=helvetica] ;
0 [label="X[17] <= 0.5\ngini = 0.494\nsamples = 242\nvalue = [108, 134]", fillcolor="#d9ecfa"] ;
1 [label="X[8] <= 0.5\ngini = 0.384\nsamples = 108\nvalue = [80, 28]", fillcolor="#eead7e"] ;
0 -> 1 [labeldistance=2.5, labelangle=45, headlabel="True"] ;
2 [label="X[6] <= 0.5\ngini = 0.494\nsamples = 47\nvalue = [26, 21]", fillcolor="#fae7d9"] ;
1 -> 2 ;
3 [label="X[0] <= 51.0\ngini = 0.444\nsamples = 27\nvalue = [9, 18]", fillcolor="#9ccef2"] ;
2 -> 3 ;
4 [label="gini = 0.496\nsamples = 11\nvalue = [6, 5]", fillcolor="#fbeade"] ;
3 -> 4 ;
5 [label="gini = 0.305\nsamples = 16\nvalue = [3, 13]", fillcolor="#67b4eb"] ;
3 -> 5 ;
6 [label="X[2] <= 115.0\ngini = 0.255\nsamples = 20\nvalue = [17, 3]", fillcolor="#ea975c"] ;
2 -> 6 ;
7 [label="gini = 0.444\nsamples = 3\nvalue = [1, 2]", fillcolor="#9ccef2"] ;
6 -> 7 ;
8 [label="gini = 0.111\nsamples = 17\nvalue = [16, 1]", fillcolor="#e78945"] ;
6 -> 8 ;
9 [label="X[2] <= 109.0\ngini = 0.203\nsamples = 61\nvalue = [54, 7]", fillcolor="#e89153"] ;
1 -> 9 ;
10 [label="X[5] <= 155.0\ngini = 0.444\nsamples = 3\nvalue = [1, 2]", fillcolor="#9ccef2"] ;
9 -> 10 ;
11 [label="gini = 0.0\nsamples = 2\nvalue = [0, 2]", fillcolor="#399de5"] ;
10 -> 11 ;
12 [label="gini = 0.0\nsamples = 1\nvalue = [1, 0]", fillcolor="#e58139"] ;
10 -> 12 ;
13 [label="X[3] <= 128.5\ngini = 0.158\nsamples = 58\nvalue = [53, 5]", fillcolor="#e78d4c"] ;
9 -> 13 ;
14 [label="gini = 0.0\nsamples = 1\nvalue = [0, 1]", fillcolor="#399de5"] ;
13 -> 14 ;
15 [label="gini = 0.131\nsamples = 57\nvalue = [53, 4]", fillcolor="#e78b48"] ;
13 -> 15 ;
16 [label="X[8] <= 0.5\ngini = 0.331\nsamples = 134\nvalue = [28, 106]", fillcolor="#6db7ec"] ;
0 -> 16 [labeldistance=2.5, labelangle=-45, headlabel="False"] ;
17 [label="X[2] <= 157.5\ngini = 0.187\nsamples = 96\nvalue = [10, 86]", fillcolor="#50a8e8"] ;
16 -> 17 ;
18 [label="X[0] <= 59.5\ngini = 0.141\nsamples = 92\nvalue = [7, 85]", fillcolor="#49a5e7"] ;
17 -> 18 ;
19 [label="gini = 0.053\nsamples = 74\nvalue = [2, 72]", fillcolor="#3ea0e6"] ;
18 -> 19 ;
20 [label="gini = 0.401\nsamples = 18\nvalue = [5, 13]", fillcolor="#85c3ef"] ;
18 -> 20 ;
21 [label="X[5] <= 148.5\ngini = 0.375\nsamples = 4\nvalue = [3, 1]", fillcolor="#eeab7b"] ;
17 -> 21 ;
22 [label="gini = 0.0\nsamples = 3\nvalue = [3, 0]", fillcolor="#e58139"] ;
21 -> 22 ;
23 [label="gini = 0.0\nsamples = 1\nvalue = [0, 1]", fillcolor="#399de5"] ;
21 -> 23 ;
24 [label="X[1] <= 0.5\ngini = 0.499\nsamples = 38\nvalue = [18, 20]", fillcolor="#ebf5fc"] ;
16 -> 24 ;
25 [label="X[4] <= 0.5\ngini = 0.305\nsamples = 16\nvalue = [3, 13]", fillcolor="#67b4eb"] ;
24 -> 25 ;
26 [label="gini = 0.142\nsamples = 13\nvalue = [1, 12]", fillcolor="#49a5e7"] ;
25 -> 26 ;
27 [label="gini = 0.444\nsamples = 3\nvalue = [2, 1]", fillcolor="#f2c09c"] ;
25 -> 27 ;
28 [label="X[5] <= 166.5\ngini = 0.434\nsamples = 22\nvalue = [15, 7]", fillcolor="#f1bc95"] ;
24 -> 28 ;
29 [label="gini = 0.291\nsamples = 17\nvalue = [14, 3]", fillcolor="#eb9c63"] ;
28 -> 29 ;
30 [label="gini = 0.32\nsamples = 5\nvalue = [1, 4]", fillcolor="#6ab6ec"] ;
28 -> 30 ;
}